57 100
百度 0.004028713 0.0014678705 0.00013374831 -0.0016931454 -0.0011750027 0.0049164356 -0.000152462 0.003247335 0.0027257404 -0.001985902 0.0047816136 0.0023719957 0.0023508992 0.0031422393 0.0035963852 8.042566e-06 -0.0042708176 0.0024710363 -0.0027081296 -3.5206893e-05 0.0015588307 0.0024504343 -0.0011233464 -0.0030540866 0.0038957235 0.00013487045 -0.0034296974 0.002297052 -0.0020169897 -0.0020012634 -0.0019400164 0.004725023 0.001203506 0.0026431072 -0.003136444 0.0019298388 0.0018909104 0.004882572 -0.0030358748 0.00031672316 0.0047873165 -0.0017262896 0.00043697935 0.004512708 0.0022113055 0.0033025125 -0.0042311884 -0.0039054644 0.0045252284 -0.00086280156 -0.0024047052 -0.0024769674 0.0016855153 0.0016615905 0.003111095 -0.003470937 -0.0048593665 0.004451728 -0.00339781 0.00024539 -0.0012401027 -1.5218779e-05 0.0021758953 -0.001974947 -0.00085802795 0.0017829828 0.003798539 -0.0023235374 0.003374537 0.0045294245 -0.004880701 -0.0045198607 -0.0014973348 0.0024314097 -0.004899724 0.0047452403 0.0012483804 -0.004449863 0.00023582726 -0.004424706 -0.0028561077 -0.004912264 0.0033037448 0.0002755431 0.0022168178 0.0035180883 -0.0024768575 -0.004015447 0.0018424862 -0.0012468466 0.0008406234 -0.0013133882 -0.00054306537 -0.0040835994 0.0037199294 -0.0024465104 0.0044307956 -0.0030655414 -0.0013031419 3.1673455e-05
免费 0.0013313644 0.0015940189 0.0012048841 0.0027432202 -0.0041920156 -0.0021357585 0.0019091637 -0.0028549863 0.00145101 -0.0019808826 -0.0021399022 -0.0023947596 -0.0007702198 0.0038706555 8.22639e-05 0.003875753 -0.0032547908 0.00016990663 0.0046710507 -0.0047226157 5.0462728e-05 -0.0017751814 0.00012441589 -0.0016968105 0.0025450233 -0.003043665 4.43197e-05 0.0017826381 0.001136026 0.0037029611 0.0024940914 0.0028267687 -0.002029986 -0.0031574578 0.0030907309 -0.0042657754 -0.003569643 6.0705803e-05 -0.0032841794 -0.002530054 -0.004341966 0.0026920484 0.0046546143 -0.0025597867 0.0028539032 -0.001663704 0.0008552158 -0.0016731324 -0.0025914458 0.004820206 -0.0031143331 -0.0042802007 -0.0040646195 -0.0027707035 0.0011053841 0.004442016 0.0047718664 -0.0025585226 -0.0026043716 -0.0049135135 -0.00069354527 0.0027958232 -0.0047571403 0.004074424 0.00405735 0.003843491 0.004563455 -0.004638835 0.0005039537 -0.0040244106 0.0020970758 -0.0009971171 0.001597723 -0.0015768543 0.00072665507 0.0028200787 0.0031386188 -0.004456053 -0.0034358937 -0.004520212 -0.0042920494 0.0017714362 -0.00066088646 -0.000853658 0.0023854245 -0.0032010572 -0.0017662884 0.0049657347 0.003598168 -0.003034985 0.0007991528 -0.0040720296 -0.004021904 -0.004673507 -0.0006413252 0.0012765905 0.00216306 0.0026848044 0.0029807964 -0.0021123388
服务 0.0027130593 0.0038260943 0.0031204254 0.0017566172 0.0036739283 0.0010870628 0.003776928 -0.003918843 -0.00418709 0.0013620072 0.0042178426 0.0013343949 -0.0027096465 -0.0015665496 -0.0010961879 -0.00017982881 -0.002438459 0.0005983587 0.00033538337 -0.0035169513 -0.0011540838 -0.0015976285 0.00481233 0.00067422225 0.0010643338 0.00033865703 -0.002443195 0.0047699534 -0.0028562972 0.00045265118 -0.0007568965 0.0045161983 0.0013858842 -0.00030128853 0.0009916257 -0.0047797 -0.003225951 0.0024500673 0.0009574416 -0.0022360235 -0.0038572012 0.0026516924 -0.0017356141 -0.0028230052 -0.00023071512 0.0029573813 0.0047034672 -0.0025489843 -0.00013941413 -0.003031266 0.0011302243 0.003760217 -0.0039395043 0.0019450942 -0.0035571454 -0.004613248 0.0002803855 0.004820989 -0.0017307821 -0.0026612754 -0.00046356383 -0.0005087101 -0.0014424074 0.0014358305 -0.0037843925 -0.00011253819 0.0007189818 -0.00060580455 -0.0010034012 0.0002513619 0.003020636 0.00489423 0.001885112 0.00074506586 0.0022301534 -0.0015608439 -0.0023293416 0.002993946 0.0028569552 -0.004813705 -0.0038773525 -0.001159478 -0.0026135556 0.0013030568 0.0012623428 0.0034297542 0.00307873 0.004231689 -0.00071249687 0.0038303775 -0.0009684379 0.00093407097 0.003389741 -0.0003191679 -0.0045709354 -0.00014230746 -4.285911e-06 0.003316214 0.003736296 -0.0021037539
登录 0.00048163443 -0.0044034263 0.004260702 -0.0006842646 -0.002178434 -4.5625253e-05 5.2582458e-05 -0.00010403256 0.00028559717 -0.0038054248 -0.002397641 -0.0013131314 0.0038236345 -0.004685285 0.00046702597 0.0038568971 -0.002860264 0.0010039592 -0.0003637754 0.00021618686 0.0021594479 -0.00029595185 0.0033250002 -0.001193908 -0.0030908554 0.0049394094 0.0039513726 0.0024378365 -0.0007500883 -0.0038303153 0.0015687624 0.0045956564 -0.0008986484 -5.9915733e-06 -0.0029923099 0.0043351734 -0.0020757637 -0.0008004352 -0.0048021055 -0.002559815 -0.0022508488 -0.0033014729 -0.0024441022 -0.0015177608 -0.0010389149 0.004951294 -0.0011724384 0.00011639985 -0.0006783218 0.003853326 0.0003061494 -0.000808008 0.001238654 0.0012969676 0.0005284716 0.00084588444 0.0034991172 -0.0022087824 0.002241067 -0.0027061196 0.0041295304 0.00049575226 -0.00095503754 3.2982658e-05 -0.00083380257 0.0029283327 -0.00033229732 -0.004193236 0.0015202004 0.0023262817 -0.004349849 -0.0027059852 0.0015274767 0.0038484344 1.8907602e-05 -0.003633065 -0.001039203 -0.0007792271 -0.003972628 -0.0016841524 -0.00463851 -0.0004568892 -0.0032983164 -0.0012585707 0.001164933 -0.00023298357 0.0038305314 -0.0017657204 0.0005478133 0.0013202588 -0.0028079778 0.0015840542 0.0027538436 -0.0013830398 0.0004754091 -0.0015377755 8.921731e-06 0.0033817354 0.0004385533 0.0028365713
开发者 0.00048196918 -0.003441945 -0.0029035904 -0.0009574129 -0.004096849 -0.004502803 -0.0012673996 0.0033289036 -0.004299487 0.0035367925 -0.0015418546 0.002642158 -0.0035324027 2.5883744e-05 -0.0021061797 0.0035927498 0.0038443094 0.0009904299 0.003941655 0.003307851 0.002794346 0.0019088745 -0.001747875 0.0027836312 -0.0003613393 0.003198706 0.0020864722 -0.0014285916 9.12514e-05 -0.004382417 0.00030021532 0.0005958809 -0.0020623778 0.0015610163 -0.0043585473 0.0013836551 -0.0049175057 0.0031615521 0.00367813 0.0012836368 -0.0020350313 0.0024500552 0.003428685 -0.00013057115 0.0022163882 0.004188211 2.7957985e-05 -0.003891262 0.0031032488 0.0029368927 0.0041348897 -0.003918981 -0.0042321975 -0.0006514978 -6.024129e-05 -0.0028744072 -0.0029374373 0.0018244971 0.0023278925 0.0012057481 -0.0034056997 -2.284396e-05 -0.0048565003 -0.004878288 -0.0048408997 -0.0022150169 0.00271798 0.00065478234 0.0015416206 0.0031471618 0.002176302 -0.00018729814 -0.004876485 0.0010662198 -0.0019332819 -0.003813461 0.0024759325 0.0042921165 -0.0031315517 -0.0006725871 0.0012033762 0.0027714001 -0.0017268502 0.004896991 -0.0034954168 -0.0012198244 -0.0033258577 4.990535e-05 0.0015640255 0.0023412295 -0.0028177453 0.0023033824 -0.0020263444 0.0014978246 -0.00080214813 0.0010679994 -0.0006033303 -0.0015116333 -0.0039426377 -5.294236e-05
需要 -0.003920784 -0.00335017 -0.00045796265 0.0001137208 0.0017607054 0.00059597206 0.00037277793 5.2090138e-05 0.0034977675 0.0012663231 -0.0012381232 -0.00270684 0.0010654208 -0.004814977 -0.0036915552 0.0030508866 -0.0009018702 0.0033576433 -7.398609e-06 -0.003747522 -0.0010912489 -0.0002823256 0.0005300895 -0.00069351535 0.0046118977 -0.0035233183 0.0013579607 -0.00084431795 0.004808687 -0.0043606083 0.00036975642 0.0047248006 -0.00064405904 0.0012351967 0.002224224 0.002771567 -0.0034990737 0.0020693957 0.0035614641 0.004224524 -0.0020744763 0.0042290683 -0.00013350794 0.0029137628 -0.0016559006 -0.003599643 -0.0031724863 -0.00078731106 -0.0034435133 -0.0017345706 0.004627906 -0.004343959 0.00024887148 0.0032688442 0.0024811323 -0.0030072064 -0.003629936 0.0031843318 0.0029520397 0.0038253544 0.0027096157 0.0010392412 -0.0035814918 0.0048486018 0.0030132104 0.00038613126 -2.6401834e-05 0.0018493795 0.0038776186 0.0013426492 -0.0026547657 -0.0035386966 0.004202602 -0.0015813248 -0.00073613686 -0.004080773 0.00372095 -0.0035368898 0.003528496 0.0005852976 -0.004309282 -0.0013473214 0.0007689837 -0.00044908797 -0.0005902185 0.002781205 0.0034017907 -0.004835115 -0.004365836 0.0003126183 -0.0038325787 0.0014289633 0.0045256917 -0.0012245922 0.0036228478 0.0037230488 0.0039027093 -0.002844053 -0.0040441346 0.003981475
配额 -0.004718391 0.004260643 0.000651237 -0.0039131525 0.0009807633 -0.0033905255 -0.0012655861 0.0030856046 -0.0028055136 -0.0049450025 -0.004282502 -0.0047983495 -0.001654662 -0.0021013622 -0.0030918028 0.00091697037 -0.0015159234 0.0044141505 0.0048770225 -0.0038617072 0.0010780249 -0.0020126612 0.0018042802 -0.0026120092 0.0018678877 -0.0021875997 0.00040362423 -0.0047482634 0.0026408671 -0.0040555317 -0.0046847924 0.002781719 -0.0037130427 0.0042475048 -0.0016878537 0.0014562694 -0.0032322397 -0.0012709964 -0.0011160518 -0.0034694106 0.0009435101 -0.00335191 0.000998168 -0.0025795137 -0.003178165 0.001941039 -0.004079026 0.0012269951 -0.0015171372 0.0006206348 0.0013151555 -0.0036359644 0.0003636445 -0.0028176964 -0.0024697497 -0.004224427 0.002541223 0.0012533733 0.0006572229 -0.0048667993 -0.003191513 -0.0017678575 0.0035523775 0.0027108847 0.002614545 0.001950468 0.00029193645 -0.00020743738 0.0016848065 -0.00451813 -0.0024219356 0.0022063013 -0.0025295257 0.0011178914 0.0020700213 0.0036332349 -0.0009441952 -0.0029420764 0.004893928 0.0027435643 -0.0017191179 -0.00096840743 0.002904929 -0.004325763 -0.0017649094 0.0018668039 0.004292108 0.0027751226 0.003267518 -0.00037468754 -1.864986e-05 -0.0014244715 0.0025636642 -0.0039022116 -0.0027384425 -0.0017725525 0.0009991182 0.001991961 -0.00030536065 -0.0015017182
目前 -0.0035449686 -0.0036596186 0.0013518637 0.0048775547 -0.0021371231 -0.002777297 -0.0025801943 -6.2119565e-05 0.0016991376 -0.0027745762 -0.0022956165 0.002239727 -0.00059526233 -0.0040348656 -0.00348966 0.003519977 0.0018436464 0.004489893 0.004138598 -0.00341086 -0.0034887888 0.0019722714 0.0016567443 -5.447542e-05 -0.001668329 0.0028500585 -0.0033504346 -0.0032982104 0.0036595664 -0.0013043665 -0.004563488 0.0035887677 -0.004965193 -0.002340477 0.0011500975 -0.0012921368 -0.0010346653 -0.0005351582 -0.0018586245 -0.004263663 0.004620864 -0.0048218207 -0.0030958622 0.0014697922 -0.004546286 0.0047944305 0.001980434 0.003906545 -0.0011120851 0.00065260014 -0.0019498314 2.2222066e-06 -0.002082709 0.0045815543 -0.0038949419 0.003729086 -0.004318796 -0.0049523413 0.0002722073 0.0022959274 0.0010281235 0.0011010038 0.0023575367 0.0030213702 0.0012374191 -0.0013530637 -0.0020934728 0.0011793316 0.0040273657 0.0025885736 0.0045452015 0.0015448106 -0.0034435447 -0.0022817098 -0.003530112 0.00042808 -0.0032896 0.0044121896 -0.0007546693 -0.0038681587 -0.0048617283 0.0021652936 -0.0049018385 0.0042111706 0.0041009346 0.0020016704 0.00018580549 -0.0037992944 -0.0014753116 -0.0033692778 0.0019557069 0.0007411138 -0.004758383 -0.0017513304 0.0025677949 0.00016932342 -0.0037685144 0.0038802403 0.004861949 0.0017536557
付费 -0.004952597 0.0021792867 -0.0014346394 0.003347285 -0.0021489272 -0.004584748 0.004079758 -0.0014509856 0.001827964 0.0038112346 -0.0039930088 0.0032908577 -0.0019602678 0.0007009078 -0.0006998376 0.0037920577 -0.0003415827 -0.004321234 -0.0037012366 0.002711885 -0.0033971516 0.0021691073 0.0021665501 -0.004268655 0.0017177794 -0.004371 -0.00063719903 -0.0031272338 -0.0028855745 -0.0012985998 0.002106085 0.0019344704 0.004489808 -0.0020011095 -0.002444549 0.002329231 0.0030223697 0.0043498147 0.0005928914 -0.0017803648 0.0007515237 0.0036640314 -0.004219996 -0.0016111409 0.0030718155 -0.0037126143 -0.0041465433 0.0011821437 -0.00495663 -0.00044140464 -0.00068533735 0.0017056231 0.0040652314 0.002145763 0.004828221 0.004764765 -0.004279093 0.0031744742 -0.0015611462 -0.0004725299 0.004115151 0.0015916347 0.002227106 -0.0033866884 -0.0020913994 -4.4716693e-05 -1.0529779e-05 -0.0006458627 0.002715524 -0.0033922277 0.0038508389 0.0007946685 -0.002369407 0.0032561966 0.0040199747 0.00394369 -0.00013326599 0.0003389758 -0.00036582517 0.0024469637 -0.0023366723 0.0040617655 -0.0020379743 0.0019905062 -0.0023848717 0.004479377 0.0017002933 0.0025987306 -0.0031204987 -0.00046561952 0.0019834682 -0.002681305 -0.0024347366 -0.002485164 -0.0043268823 -0.002273597 -0.0025870923 0.0014398952 -0.0023198964 0.0012053244
账号 0.004054489 0.00254742 -0.003184377 0.0014741727 0.00459628 -0.0040965285 -0.003643168 -0.0020824238 -0.0010729897 -0.0015515602 -0.0026063966 8.9685265e-05 0.0019812018 0.0041375 0.0030172975 -0.0008635294 0.0021376335 -0.002483566 -0.000350765 0.0021817044 -0.0029882053 0.00441073 0.004770607 -0.001783763 -0.0027297402 -0.0014178079 0.0027514608 -0.00070019095 0.0038673303 0.0037589974 -0.003785744 -0.0035639184 -0.0009909024 -0.0018091927 0.0046664 0.0028379273 0.0023232074 0.0024992926 -0.0005059859 0.0026578489 0.0034829357 -0.0037115808 0.00041793412 0.0019533124 -0.003442731 0.00035306113 0.0033812008 0.004738474 -0.0045302953 -0.004797872 -0.0009376113 -0.0027038383 0.0032476406 0.0035929463 -0.0036562746 0.0002158887 -0.003734364 0.002413402 -0.0007999096 0.0028641643 0.0037720494 -0.004588367 -0.0004242196 0.0006128769 0.004298467 0.003048045 0.00071723375 -0.002695261 0.0026926256 0.0013088407 -0.002504179 -0.00043193958 -0.002773858 0.0046523763 -0.0025460501 0.001616846 -0.0034000746 -0.003992858 -0.0003129993 -0.0032403145 0.00495083 0.0012862902 -0.004440075 0.0015107808 -0.001223789 -0.002504187 0.0026986746 0.00021850581 -0.0034257455 -0.0021089653 -0.00018477482 0.001177561 -0.0044663483 0.003298465 -0.004229622 -0.0038886818 -0.004829493 -0.0049199257 0.001990175 -0.0030257902
注册 -0.0023217103 0.00048126327 0.002189472 0.0020842191 2.370438e-05 -0.0031714696 -0.00014892877 0.0027141657 -0.003770761 -0.004376031 0.0034390497 0.003432236 0.004319542 0.003011345 -0.0027497956 0.004333728 -0.0039685164 0.0010565076 -0.0012822372 0.00035281232 0.0038448197 0.000135594 -0.0040099774 0.0048909676 0.001259831 -0.00333408 0.0025917313 -0.0038853304 -0.0011138973 -0.0013554137 -0.0005268715 -0.00023517828 -0.004072842 0.0019239387 0.004952409 0.003503891 0.0038714288 0.0002328147 -0.004223951 0.001973364 0.004050831 0.00088838785 0.0023482135 -9.628529e-05 -0.0008796967 0.0014934052 0.0016514664 -0.0014288058 0.004470459 3.628326e-05 -0.00045913283 0.0009845012 0.0015933053 -0.0017187089 -0.0037971423 0.003205288 0.0047709327 0.0022160902 0.0032156296 -0.00068085914 0.004276326 -0.0026073859 0.004277744 -0.0024232569 -0.0021846036 0.00045762473 0.0047776233 -0.0014502873 -0.0032154599 -0.0010476703 0.0015508732 0.0009986599 -0.0006900393 -0.0017109343 -0.00036212365 0.0011429791 -0.0041750954 -0.0033959842 0.004170406 -0.00038974866 -0.0016309604 0.0032773132 -0.0031406598 0.00038611577 -0.0037571113 -0.001065322 0.0034721124 -4.8668295e-05 0.0049118972 0.004222315 0.0015057133 0.0024609182 0.0012895332 -0.0002161731 -0.0049359845 0.0015478673 -0.002932504 -0.0011524024 0.0037748457 0.002274723
账户 -0.0011415858 1.9948078e-05 -0.0034346415 0.002318901 0.003201265 -0.004215463 0.003853998 -0.0010154978 -0.0022902703 -0.004335157 0.0007219955 -0.00454937 -0.002888327 0.0012949575 0.0039137737 0.00034212563 -0.0010074928 -0.0009937288 0.0027421443 0.0031245288 0.0041566454 -0.0004767775 -0.0031276527 0.0008550249 -0.0013615432 0.0026701095 -0.0025966251 -0.0010358451 0.0030660739 -0.0021576565 -6.2743944e-05 -0.0038708814 -0.0029548758 -0.0020091615 -0.0010903563 -0.000620304 0.0026139147 -0.0009984118 0.0021738817 0.0010162996 0.004853145 -0.004552399 -0.0032693432 -0.003262005 0.0007495626 -0.0015897049 0.0022928813 0.0021510755 -0.0031216883 -0.00093863247 -0.0025369423 -0.0035902925 -0.0014052425 0.00462238 0.0029426364 -0.0044148103 -0.001632881 0.003682303 0.0017910106 -0.002965959 -0.002425994 0.002431248 -0.0014499399 -0.0019889497 -0.0026737575 0.0009873661 -0.0024414721 0.0033023544 0.0019865204 -0.004380647 -0.0018626386 0.0024058055 0.0016702132 -0.0004991173 -0.0047073043 0.0047582104 -0.004830406 0.0043248096 0.0038226196 0.0046414835 0.0032003548 0.0027789122 -0.003692103 -0.00039414054 0.004656005 -0.002737897 -8.810545e-05 0.0030784532 0.0013310354 0.00475328 0.002747641 -0.001033426 0.0015860043 0.00068186864 -0.0045531685 0.0030312603 0.001151886 -0.0038049421 0.0015145331 -0.0021277075
时 -0.0041831317 0.0032407069 -0.0011409386 -0.0032467998 0.0012432933 0.0040029013 -0.0042394903 -0.00063854025 0.0042333473 -0.004784959 0.0019995817 -0.002940951 -0.0017130778 -0.00047321882 0.0006251981 0.0013377233 -0.0039317184 -0.0004065759 -0.0048377854 -0.00332206 -0.0007093981 -0.0032430706 -0.0026672094 -0.0043125455 -0.0005639282 -0.0006945604 -0.0048968405 -0.004347835 0.0033386804 0.0014262353 -0.0036254688 -0.0045057917 -0.0029767377 -0.0036516213 -0.0044536223 0.00032245638 0.0009781957 0.0037906964 0.004952193 0.004700352 -0.004812026 -0.0039304546 -0.0014804117 0.003385399 0.004367666 0.004177998 -0.0012295191 0.0041552763 -8.101239e-05 0.000546294 0.004676578 -0.004375968 0.0044814204 -0.0043864185 0.0022773922 -0.0045508756 0.0043014344 -0.0013063607 -0.00079003244 -0.0008040958 -0.0027870266 0.0032920337 0.0034459273 -0.0046850163 0.00075853476 -0.003829983 0.00062731875 0.0026878929 0.0001546125 -0.0043755835 0.0016017592 0.0042643836 0.00082681025 0.0031988008 0.004526414 2.0046264e-05 0.0023843427 -0.0014399891 -0.0013845484 -0.0047858465 0.0035144724 0.002365332 0.00022150109 -0.0009820734 0.004383829 -0.0031870215 0.003963254 -0.00377111 0.0013292038 -0.0015268993 0.0017364043 0.0012245442 0.004610476 -0.0041390313 0.001393383 0.0033958827 0.0010120673 -0.0032413674 0.004763211 -0.002639165
收不到 -0.004971617 -0.0015977616 -0.00086433644 -0.00092129386 -0.0044343066 -0.0014328106 -0.00039290093 0.0015837942 -0.0014165819 -0.0030831955 -0.0049546966 0.002968429 0.0029400557 -0.0027287507 0.0008044968 0.0018997876 -0.0012002243 -0.00078605104 0.0023688762 0.0046202266 0.0011118469 -0.001849788 0.0002547138 -0.00017774416 -0.0001368833 -0.0010789374 0.002163847 -0.0022920282 0.002616434 0.00065524445 -0.0036553417 0.0014168783 -0.0005157511 -0.004444392 -0.0019091358 0.00096719747 -0.0024930597 -0.0013862404 0.0040286095 0.004086695 9.529894e-05 0.004915998 -0.003434487 0.0036671562 0.0015893704 -0.0035402402 -0.0043874434 9.8074626e-05 -0.004565771 0.0028310341 0.0010427498 -0.000964712 -0.0031367275 -0.004121091 0.00019510265 0.0005996391 0.0006731633 0.00073633407 0.0033465934 0.002927407 -0.00045116487 0.0006141119 0.0014589737 0.0039998046 -0.004862764 0.0020798917 -0.0013931175 -0.0011330933 -0.0010523811 0.0038255318 -0.0028819172 -0.0039163576 0.0015487833 -0.0018523239 -0.0015267531 -0.0037015085 -0.00042871176 0.0042886883 -0.0028065902 -0.0045731864 0.0022737319 0.0014138455 -0.0032959757 -0.0034448197 3.3303844e-05 -0.0010929023 -0.0028866243 -0.0026243294 -0.0026682771 0.0017324731 0.0035336546 -0.0005501203 -0.0025194916 0.0043210215 -0.0013546186 -0.004661392 0.00027236436 0.002489731 0.0013769057 0.003856048
验证码 0.0041458737 -0.0047274944 -0.004451935 -0.0017065912 -0.0012042931 0.0030252317 0.001744246 0.0027855174 -0.0027918129 0.003165595 0.0029220853 0.0021250306 0.00414963 0.00049692043 0.0036229677 0.0039756177 0.0038736325 -0.0039211907 -0.0015493216 0.004225369 -0.004284529 0.0023268024 -0.002411392 -0.004866309 0.001115003 -0.0027958148 0.00049977313 -0.0017721402 -0.004053963 -0.00079856673 0.0016576601 -0.0025917797 0.001185124 -0.001978661 -0.0005651873 -0.0017848401 0.0020774014 -0.0049739867 0.00077687006 -0.003980442 0.004769867 -0.0014729344 -0.002275694 -0.001171081 -0.00068629463 -0.003378733 -0.0013974867 0.0017726119 -0.004216673 -7.621965e-05 -0.0031641491 0.0025880155 0.0036148934 -0.004007733 0.00043138242 -0.0024859605 0.004391293 0.0019976823 -0.002107581 0.0007183706 -0.0037395447 0.002434511 -0.00141318 -0.00045999838 -0.0038864363 0.0015124404 -0.00024004011 0.0010852577 0.004435185 0.00058506976 -0.0028887785 -0.0009481722 0.00024702356 -0.0038749713 -0.001840891 -0.0008392633 0.0019200807 -0.004384636 -0.0017324943 -0.0030384383 -0.0010338456 -0.0020635934 -0.0037792118 -0.00026640084 -0.001882176 0.0002596278 0.0047122044 -0.0011186772 0.003402615 0.00050721335 0.002920485 -0.0043900437 -0.0029403977 0.004918871 0.00057168026 -0.0033775512 0.0044613043 -0.0010602165 0.00079234334 -0.004526138
会 -0.003152018 -0.0019528804 0.0010838928 -0.0024326248 0.003772659 0.0006022419 -0.0009321479 -0.0020549027 0.0024601799 0.0033764637 -0.0037417293 -0.0032200902 -0.00040386416 0.0036828537 -0.0021251442 0.00086220587 -0.0030366033 -0.0016236642 0.002262327 -0.0016314209 -0.0031589908 -0.0018621095 0.0031660355 -0.0036351983 0.0007728383 0.0033752467 0.0020671238 -0.0026595325 0.00086260313 0.003608046 -0.002342187 -0.00031357977 -0.0017624701 -0.00049543567 -0.0014391772 -0.0046026455 -0.0018600496 -0.0033503703 -0.002176737 -0.000309271 -0.0033263706 0.0017824371 0.0014427868 0.0024727378 0.0012243873 0.0037564451 0.0017272868 -0.0032735232 -0.0011477246 0.0032955434 0.0018895138 -0.0041420655 -0.00089243083 0.0033411675 -0.0039199237 0.00083577627 -0.002978137 0.0028346055 0.0032286968 -0.0019120409 0.003788038 -0.0012130059 0.0042330124 0.004778955 -0.0010328075 -0.003674227 -0.0010767535 0.0032647334 0.00034350503 0.001947271 -0.002135993 0.0027037282 -0.0040401076 0.00021091352 -0.0043143267 0.0021078687 -0.002052235 0.0045824596 0.004896411 -0.0009338868 0.0018547631 -0.00025681732 0.0006029514 0.003121846 0.004913958 -0.0039487663 0.0019577793 -0.000676359 -0.004026646 -0.0035293675 -0.0030043733 0.00027023704 0.0024417972 -0.003555147 -0.001878299 0.0039668963 -0.0010316124 0.003689106 -0.0027914585 -0.0029864637
还要 0.0035620036 0.0015019592 0.0047092065 0.0048704194 0.003759312 0.0006149962 0.0015933958 0.004180469 0.00051530905 -0.0048973155 -0.0038398895 0.0037613695 0.0035073212 0.0047830436 0.0033532926 -0.0010142768 0.0046299337 -0.0040932135 0.0007877132 0.0005595725 -0.00019398423 0.002359529 0.0030852095 -0.004612454 -0.0023267455 0.0019599108 -0.00030018296 -0.0012039213 -0.0017809187 -0.0018017492 -0.0035663338 0.003571652 0.00097110705 0.0033893492 0.00045587137 -0.001138796 0.00090680266 0.003085446 -0.0019556184 -0.0040177177 -0.0023276466 0.0027905218 -0.003633683 0.00045944296 -0.0035412582 -0.003526611 -0.0022354566 0.0027025163 0.0024815674 -0.002210262 0.0029057227 -0.0009928781 -0.0022489051 0.0025442904 0.004725763 -0.0015385865 0.00452834 -0.0009945517 4.68855e-05 -0.0017856931 0.0011887724 -0.00035605216 0.0031230326 -0.0026249907 0.0034557614 0.0042515104 -0.002146721 0.004978262 0.0028070249 -0.0040493566 0.0018544622 -0.0042665387 -0.0020402458 0.0009389411 0.0026413102 -0.0046477034 -0.0033392778 0.002603744 0.004532021 0.002562988 -0.0038247237 -0.0019603495 -0.0015591048 -0.0001617904 -0.0014440755 -7.160155e-05 -0.0008993777 0.0013838275 -0.0048761517 0.0038642357 -0.0006210563 -0.00079627254 -0.0013172985 0.0011377919 0.003060451 0.0009062471 -0.0007026184 -0.004363516 -0.0035618355 2.6359234e-05
境写 -0.004077047 0.0004886206 0.0047342037 -0.0020909363 0.00036514862 0.0013192852 0.0009461466 -0.0019182386 -0.0028679338 0.0034496256 -0.003521209 0.0022622645 0.0018547378 -8.798049e-05 0.0037235795 -0.0028015643 -0.0045505087 0.0019412821 0.0021310232 0.0049467264 0.0022121319 -0.002764842 -0.0048160525 -0.003783293 0.004404169 -0.0007924008 -0.004736065 0.0010273246 0.00012426708 0.0025048708 -0.002668322 0.004190526 0.0005845106 -0.0043540383 0.002033049 0.0006640535 -6.3929556e-06 -0.0011544859 0.0037969786 0.0039399406 0.002702084 0.00084379467 -0.0049576773 0.0038203977 0.004018302 -0.0014033451 0.0009981936 0.0035937233 -0.003180804 0.0045575416 0.0014529203 -0.0023263455 0.00046604956 0.0021890397 -0.0041429806 0.0017554726 0.0031171187 0.0030233953 0.0038499446 -0.0006017539 -0.0038081962 0.0005284942 -0.0013291078 0.001935542 0.0014541802 -0.0010357383 -0.0049056592 -0.0033148685 -0.00044620078 -0.0022916584 0.0006980079 0.0014169036 -0.0023309428 -0.003066937 2.5404119e-05 -0.004637147 -0.0048362967 0.0033492674 -0.0015223364 -0.0031649133 -0.0021541417 -0.004470482 -0.0030041696 0.003226469 0.004307048 0.0022678864 0.0015586534 0.00050806475 0.0008134582 0.00036491422 0.0034901695 0.0029674608 0.0025578225 -0.0037246968 0.0010898772 -0.00045033547 4.684876e-05 0.004400147 0.0030010487 0.0014317889
手机号 0.003843216 0.004899751 -0.0041731047 -0.0027361913 -0.0010254461 0.0003012437 -0.0043595596 0.0042392137 -0.0009278256 -0.0031469215 0.0041089808 0.0018855411 0.0008591999 -0.0013582589 0.0027173283 0.0033018056 0.00454215 -0.0013600332 -0.00034586995 0.004002838 0.002776764 0.0035534964 0.0016419634 -0.00046121536 0.0044851773 -0.002012343 0.0024048018 0.0040428774 -0.0021985117 -0.0042627896 0.0008567177 0.0013521236 -0.0031016367 0.0043429853 0.0036549629 -0.003915114 0.00050200254 0.0012296282 -0.0035887 0.00044260322 -0.0015832761 -4.2745047e-05 0.0013502542 0.004693693 0.0035664074 -0.002248471 -2.2178117e-05 0.002494844 0.0017576844 -0.0049043177 0.0033787063 0.00079890457 0.0012297953 0.0017083448 9.6672964e-05 0.0005331309 -0.000120803685 -0.0006141757 -0.0030537474 -0.0021802771 0.002101786 -0.0022747305 -0.0044605876 0.004152081 -0.0045836624 -0.0009978962 -0.0026251536 0.0011287984 0.0030698946 -0.0046639736 -0.0010871512 -0.0022065602 0.0033430099 0.00066802296 0.0030284964 -0.0022381481 -0.0014744443 -0.00030409702 0.0046003694 -0.0011704016 -0.00012958609 -0.0049548736 -0.0028957669 0.0034254177 0.003579601 -0.004505985 0.0020356942 0.003147788 0.0013203248 0.0017364469 0.0012183004 0.004827927 0.002494226 -0.00050365564 -0.0027562228 -0.0007240638 -0.0032164967 -0.0028300493 -0.0026767994 -0.0012444565
以前 -0.0048672846 -0.0038534994 0.0022347255 0.0006372332 0.0005737989 0.0045652715 -0.004883907 0.0036097881 0.0026170285 0.004844849 -0.0041639446 -0.0007754025 0.0009861252 -0.0007926167 -0.004113587 0.0033356135 0.002128275 -0.0006946859 0.0016306174 -0.004857315 -7.8573285e-05 0.00045869392 0.00396811 0.0005197954 -0.0036562453 0.0026428485 -0.0031802882 -0.0030576554 0.0038296033 -0.0023300012 -0.00041451876 0.001894888 0.0028267046 0.0001187249 -0.004452255 -0.0036054729 -0.0017189628 0.001984009 0.00037114954 -0.0016496404 0.0022159284 -0.0026070592 0.0045588627 0.0041143913 0.0024003938 0.0006692706 -0.004617663 -0.0031969855 0.0030303197 0.0042664846 0.0037444169 -0.002929756 -0.0016279392 -0.0048845606 0.0013101082 -0.0011173898 -0.0026527815 0.00412829 -0.0014664428 0.00049358583 0.0027064327 -0.0031375275 0.0013386107 -0.004276472 -0.0046943044 0.0010317729 -0.0027504084 0.0044188956 -0.0020871623 -0.0018354048 0.0006711214 0.0030628964 -0.004460343 -0.0007872323 -0.0007156569 0.0004456716 0.0049432516 0.003736713 0.0040854444 0.0047296197 0.0012897947 -0.00015684748 -0.004609864 0.0011710082 0.00019643751 -0.0007682743 -0.0027501665 -0.0032801153 -0.0011096422 -0.0015126764 0.0016578413 0.0027788593 0.0034874647 -0.0025297422 0.00097558234 0.0012222589 -0.0048599746 0.0006557159 0.0038602643 -0.0040526036
中心 -0.003918334 -0.003882042 -0.00019361773 -0.004096196 -0.0030099663 0.003793199 -0.003062746 -0.004080812 -0.001133967 -5.444641e-05 0.002021815 -0.004210058 -0.0047790743 -0.0037995228 -0.0011894448 0.0015888594 0.0037276817 -0.00086745596 -0.0010797337 0.0043536304 -0.0023532999 -0.004308914 0.00044554082 0.0011376068 -0.0037986722 0.00017030162 -0.0029698045 -0.000105988445 0.00041194196 0.000541423 0.001541834 0.001234451 0.0018737116 0.0013635083 -0.0009839315 0.0049154875 -0.0024794405 0.00064613955 -0.0011126208 -0.0049834703 0.0029747223 0.0028358002 -0.0020425294 -0.0041388553 0.00031456663 0.0025254844 -0.003681965 -0.0038783094 0.0009843603 -0.001683583 0.00079121627 0.0034519678 -0.0010468473 0.003953505 -0.0014867253 -0.0048371796 -0.0036822152 -0.0024824296 -0.0048028124 0.0036812315 -0.0036940593 -0.0038685082 0.0022083528 -0.0009033817 0.0007142898 -0.000619741 -0.0003931942 0.003983883 0.0034771278 -0.0046125227 0.0013718717 0.0012721486 -0.00064942485 -0.0010430684 -0.0034692655 0.0012823452 0.0010375136 -0.0041493867 0.0047063534 0.0044355555 -0.0018643145 -0.0046403357 0.0038387054 0.0009022211 -0.0029870353 0.0014040645 -0.003822062 0.0022561545 -0.0010871423 -0.0011972252 -0.0029293082 0.00032006044 0.004218149 -0.0022386832 0.0018936698 -0.0041105235 -0.0005614555 0.0016602135 0.002745167 -0.0025661446
用户 -0.0024941151 0.0010203664 -0.004284538 -0.003924779 -0.00031911547 0.0036574008 -0.0040121595 0.002914742 -0.0042880448 0.0042132055 0.002255001 0.0024258848 0.0019894291 -0.004809359 0.0023749645 0.0011205885 -0.0034118288 0.004036121 -0.004976038 0.0031582625 0.0003522868 0.0007878677 -0.0017347462 -0.0044153295 -0.0013430369 -0.0021370922 0.0049295 -0.004202511 0.0024083601 0.0012076217 -0.0014644872 -0.004038963 0.0031561372 0.0004676541 -0.002026111 0.00088611513 0.0034939677 0.0021889047 -0.00041921774 -0.004167293 0.0039937748 0.004181493 0.0044693546 0.0007044725 -0.0024636907 0.003892764 0.0046448656 -0.001146766 -0.004360406 0.0025378629 0.0038265618 -0.0030545664 0.0028972758 -0.0029709984 0.004633716 -0.0035466887 -0.0010803401 0.0024216608 -0.00029099526 0.0031070877 0.0043345266 0.0028835253 -0.0044534565 0.0012788071 0.002823781 -0.0048829396 -0.00027840273 -0.002611361 0.00408844 -5.5610595e-05 -0.003767198 -0.0048744334 -0.0012560661 0.004865523 0.0043476545 0.0024592117 -0.0022003804 -0.0025833158 -0.00036483345 -0.001581568 -0.0029111134 -0.00037331835 0.0032251123 0.004460773 -0.0032161176 -0.00085055863 -0.0024314122 0.004747059 -0.0015968244 0.0026292664 0.0020549812 -0.0039544827 -0.0019038125 0.0003268481 0.0022843066 0.0021645296 6.1581827e-06 -0.0044331905 0.00414217 0.0040769237
还 -0.002895385 0.0007001844 0.00031376173 0.0006110225 -0.0032782175 0.00088540296 0.002933593 0.004437509 -0.004589478 0.0029530486 0.0028985445 0.0019548158 0.0041147447 -0.004689608 -0.0030207944 0.0045562815 -0.0007192433 0.0036260025 0.002025018 8.991345e-05 -0.0047942824 -0.0016436737 -0.0012306065 0.0006865739 0.0009154441 -0.004476165 -0.0033626084 0.0033017455 0.00015783515 0.0027474856 0.0035100393 -0.0017158177 -0.002386627 -0.004184348 -4.4661043e-05 0.0046330052 1.5988469e-06 -0.0044612605 -0.002558798 0.0035423657 0.0032493002 -0.0018019283 0.0017207135 -0.0032089553 0.004666246 -0.0034430106 -0.001493456 0.004732141 -0.0033753258 -0.0049708043 -0.00061390357 9.032855e-06 0.0009232415 -0.0035056795 0.0012512879 -0.004143187 0.00021746734 0.0037219669 0.0031500782 -0.0031072737 0.004995959 -0.004580293 0.0016637107 -0.0023020224 0.0022115933 0.0015629346 0.0047842804 -0.0047123525 -0.0014484922 -0.0046606017 -0.0020540226 0.0043751164 -0.0047639497 -0.00031480557 0.0041555627 0.001159478 -0.0037061544 0.003051129 -0.0006232311 0.0027290063 0.0037766804 -0.0049566743 0.0043229437 0.004100866 -0.003347225 0.004658984 -0.002020797 -0.0019522522 0.002361844 -0.0023109892 -0.00051492295 -0.001241552 0.0014859671 0.00015616055 -0.00013713034 -0.00069145695 0.00372953 -0.0029773829 -0.0013082568 0.004977947
进行 -0.0005442043 -0.002665962 -0.0028171996 0.0013908012 0.0007028329 0.0048736557 0.001658877 -0.003648134 -0.0008871358 0.0033209932 -0.0025622603 -0.004790754 -0.0023180624 -0.0015206365 0.00089273084 0.004885034 -0.0029927706 0.0027636196 -0.002368453 0.0038570145 -0.001975927 0.0042735916 -0.0021231154 -0.0039851204 -0.0014161742 -0.0026989193 0.0014090788 0.0012956379 -0.0049801935 -0.002274345 -0.0030435803 -3.0511817e-05 0.002227312 -0.004691 0.0017707448 -0.0027230228 0.00050425314 0.00069671136 -0.0012702742 -0.00067255046 -0.0036252697 -0.0047228797 0.0006195932 -0.0006834235 1.0639279e-06 0.003304774 0.0015422583 -0.0046899067 -0.0045996285 -0.0009782517 -0.0047128475 0.0028922902 0.0032820846 0.002406304 -0.0018144031 -0.0012536783 0.0047864662 -0.0022605942 -0.00070951454 -0.00386402 0.0034196093 -0.0012089171 0.00079633266 0.0042267153 0.0033843669 0.00049657264 0.0021795873 -0.0021630663 0.0011001502 0.0010973883 -0.00479232 0.0013809986 0.0012431014 -0.0035847106 0.0037328645 -0.004005694 -0.00091541704 0.004329695 0.0018917318 -0.0036240513 -0.0021736377 -0.0022071877 -0.0003216698 0.0037826472 -0.003236917 6.785085e-05 -0.0034549946 0.0046066074 -0.004648643 0.00018306162 -0.000823334 -0.0010324367 -0.0044269273 0.00079019094 0.004355666 0.003230446 0.004608202 0.003040172 0.0029589108 -0.00081863423
认证 0.004431269 0.0041102725 0.0019171792 0.0008816388 -0.0047474494 0.0017828582 -1.3466449e-05 -0.001350347 -0.0013112935 -0.00017954387 -0.0033669453 -6.739987e-05 0.0009997123 0.004263082 0.0030445114 -0.004699477 0.0018945072 0.002864919 -0.0048952554 -3.85776e-05 -0.0003609479 0.004648613 -0.0036825559 0.0017160636 0.00398802 0.00088398886 -0.00027723008 -0.0041596564 -0.0033559098 0.0021495319 -0.0030049512 0.0025721623 0.0011748623 0.000999406 -0.0028026463 0.00037486866 -0.0010412197 0.00030824932 0.0006835953 -0.0028609792 0.000613064 -0.0031114472 0.002707154 -0.00012479181 -0.0013921963 0.0039039666 -0.0004034122 -0.0011508403 -0.004935087 -0.002042724 0.004431075 -0.0013819317 0.0033934189 -0.002013463 0.0033998785 -0.0011151875 -0.0033539408 0.0031347275 -0.004749185 0.0016457827 0.0016249872 -0.0015483057 5.546701e-05 -0.004918037 0.0025981904 -0.0022081344 -0.0020171364 -0.0024062914 -0.0025298558 0.001113356 -0.0004796115 4.554195e-05 0.0043565314 -0.0013533273 0.0046570986 -0.00486496 -0.0001302178 -0.0038474437 0.0018114418 -0.0006625461 -0.0023315765 -0.0028651273 0.0019848763 0.0014820866 -0.0044287816 -0.0020774049 -0.0011891596 0.0007286325 -0.0009526197 0.0015257892 -0.0022285515 -0.0030276075 0.003613827 0.0036413786 -0.0044718618 -0.003665901 0.0027764472 0.0016782045 -0.0034229697 0.0024781495
手个 -0.001870453 0.0015908635 0.0016801988 0.0049981656 0.0045857127 -0.0014060372 0.00406029 0.0012905218 0.0040157954 0.0009922324 -0.001829749 -0.0047058524 -0.003985274 -0.0022160518 0.0023226966 0.0046411734 -0.0038619565 0.0035611943 0.0025589487 -0.00096265203 -0.002120959 -0.0042447154 -0.0011845106 0.0022669807 0.00075984537 -0.0028370537 -0.0036433632 0.0027354476 -0.0015380422 0.004115508 -0.0022687172 -0.0015555776 -0.0035682356 0.004222172 0.0025729688 -0.0024914998 -0.00087195076 -0.001945839 -0.002271634 -0.0048459684 -0.0036518513 -0.00093477924 -0.0012605649 -0.0010121053 0.0014613492 0.0032063168 -0.0014629886 0.0023073996 -0.0048075793 -0.0022117821 -0.0035977517 0.0048388974 0.0036651695 0.002987891 0.0027217492 -0.0046647186 -0.0037751836 -0.0008356087 0.0011328494 -0.0025230402 -0.0038645694 -0.0044357325 0.00023110781 0.002145272 -0.00047632118 -0.0032498937 0.002272243 0.004819985 0.0021799768 0.0047432617 0.0036243538 -0.0020738866 0.0045608887 0.003209143 0.0041589625 -0.0002718472 -0.0006956122 0.0026868521 0.0045309174 0.0035475614 -0.0032187565 0.00076436694 -0.003978021 0.0045138653 0.002795566 -0.0018867862 0.002864175 -0.004156437 -0.001962509 0.00461965 0.0015259518 -0.0012809808 -0.0036110976 -0.002912031 -0.001209838 0.0016484802 -0.0035947545 -0.0029381127 -0.002698912 -0.004387105
语求 0.0012669852 0.0028956202 0.002650041 0.0013356362 -0.0042429664 -0.0004221854 0.0025526814 0.004164113 -0.0018782497 0.0033903853 0.0038201213 -0.0018109081 -0.002653963 0.000518043 0.0043862914 0.0022245287 -0.0021039005 0.00014909096 0.0014984254 0.0006583328 0.00064657314 -0.0049856817 -0.0014740276 -0.0025432543 0.0033014612 -0.0015364591 0.003860477 -0.0014189673 0.00023639509 -0.0028460983 -0.0028014083 0.0024497374 -0.00029402808 0.0011200352 0.0022502912 -0.0029040966 -0.004530669 0.0047241757 -0.0040032184 0.00393806 0.0011714108 0.0014695128 0.0018957673 -0.000856629 0.0027418556 -0.0035232827 0.004948028 -0.0011964707 -0.0030085347 0.0035936115 0.0024974525 0.0033150816 -0.00063690625 -0.00077746145 -0.00012002259 -0.00020229795 -0.003780924 -0.0012690017 0.0018799902 0.0015603134 0.003180279 -0.0014488584 0.0036472653 0.00082218304 0.0024817423 -0.0041021993 0.0006472702 0.000902542 -0.0044275057 -0.0031673764 0.00042753667 0.0026995388 -0.0021153584 0.0030771466 0.0038736307 -0.0037921402 0.0047193654 0.0020662062 0.0014651619 -0.0024278453 0.00087895786 -0.002556109 0.0011371324 0.0009066135 -0.0004364199 0.004942206 0.00013781273 0.0041461936 0.0045737005 -0.00054514577 0.0026438748 0.0021502844 0.004320674 -0.0041085347 -0.0041796574 0.0009444214 -0.0048852945 0.00064818707 -0.00016973872 0.0031754526
都 0.0022488234 0.0043953685 -0.0032945843 -0.0036241421 -0.0013877797 -0.001278774 0.0033003674 0.0022502823 0.0009407297 -0.0023627887 -0.002152284 0.0014563467 0.0012887638 0.0014310112 -0.0026509583 -0.0035478536 -0.001408392 0.0048900736 -0.0032842958 -0.003774824 -0.004622973 -6.283025e-05 -0.00024386201 -0.0016507279 0.001446086 -0.00080235756 -0.0010014913 0.00038585323 -0.004705935 0.0025014991 -0.0041858717 -0.0042603235 0.00012237583 0.0039190934 -0.0007917159 -0.0013976039 -0.0040792404 1.602221e-05 -0.0042862645 -0.0017892539 0.0049977717 0.004141133 0.0045595663 0.0011773543 -0.0014115312 -0.0047185603 0.00044036657 -0.002933535 8.644939e-05 -0.00048692833 0.0007834939 -0.0040052747 -0.0014655378 0.002578981 -0.0038700663 -0.0017151624 0.0016174352 0.0039056607 -0.0047026677 -0.0035401862 0.0036391104 0.0029861452 -4.4434866e-05 -0.004231925 -0.00062605634 0.00081947795 -0.0010889105 0.0017202043 -0.0024347291 -0.004934058 -0.00337082 0.0023906168 -0.0014246305 6.6986664e-05 -0.0007304617 6.3814437e-06 -0.0046113995 -0.0041172947 -0.0012048155 -0.003382722 0.0010829465 -0.00025165928 -0.004796293 0.0027511753 -0.0016456906 0.00234475 0.0032949012 0.0028627308 3.524793e-05 -0.0028933687 -0.003647458 0.0006094648 0.0049226633 -0.0018157486 -0.0031052942 0.0023967684 0.0012579979 -0.0010967517 0.0012734393 -0.0039465716
创建 0.0038930408 0.0028450743 0.00042419697 0.0021163763 -0.0016883188 0.0013267322 0.0006961274 -0.0023149922 -0.0024087979 -0.0016025174 0.0026750953 0.0021766664 -0.0032401877 -0.0023586906 0.0027213278 -0.0033049295 0.0004212969 0.0026924692 -0.004956154 -0.0021739325 0.00027348992 0.0046486603 -0.002710205 -0.0021489402 -0.0045648287 0.0033774418 -0.0025216567 0.0045611076 -0.0020729373 0.004112352 0.0035691503 -0.0018901646 0.00072715373 -0.00018606233 0.0014287353 0.0044802832 0.0044131745 0.0028959117 -0.0028598816 -0.0014596822 0.0036043872 -0.0042717215 -0.0023609486 -0.0015643641 -0.0025311515 -0.001125392 -0.00397958 0.0027655216 -0.0009137066 -0.0006707925 -0.004022664 -0.0020133322 -0.0034851793 0.0042999065 -0.0016964775 0.0020143772 -0.0023122868 0.0040912475 -0.0040632216 0.00071258267 0.004836359 -0.0041333237 0.0018421066 -0.0043332083 6.2769774e-05 -0.0027194654 0.0029332128 -0.0024353166 0.002289118 0.0012972245 -0.003141001 -0.0015645645 0.0036116503 -0.0014684543 -0.003868401 -0.004451824 0.0028006046 0.000601465 -0.003284127 0.00430865 -0.0022318747 -0.0032533386 0.0036377483 -0.0021666687 0.0048607197 0.00018326355 0.002988481 0.001239886 -0.0029767354 0.0047441917 0.0027361985 -0.00068993936 0.000775239 0.004039624 -0.0017135459 -0.00094221503 -0.0021401502 -0.0010151556 -0.0024269132 -0.0048442367
应用 -0.0010319044 -0.00027932078 4.4773784e-05 -0.0037169997 0.0010540709 -0.0007199502 -0.0035238697 -0.003647149 0.004501621 -0.0012851728 0.00146586 -0.0015995224 0.003923809 -0.00096599426 0.0006639817 -0.0019301311 -0.0026474302 0.0013930056 -0.004501133 -0.0010636633 -0.00145257 -0.0007346137 0.0006575292 0.004258234 -0.00296944 -0.0036790946 0.004919218 -0.0032248104 0.0027231963 0.0015230366 0.00094224827 -0.0032950898 -0.0027355528 0.002816257 -0.004957786 -0.0039792466 -0.0047313827 0.00069090485 -0.0047535645 0.004147469 -0.0027470784 0.0028756415 0.00057964795 -0.0027187187 0.004845079 0.0014410578 -0.0033417353 -0.0036831533 -0.0010185406 0.0003118876 0.0012355217 -0.0017042509 0.0026448315 0.0010666989 -0.0029392368 0.0031141026 0.00081668654 -0.0022780998 -0.00040968362 0.0021883238 -0.0049038916 -0.0021114158 0.0048691127 0.002099992 0.0038802342 -0.004723714 0.0039695916 0.003970274 0.0011929909 0.0049786796 -0.0022815624 0.002758312 -0.00096338807 -6.753566e-05 -0.0022351458 0.0017123305 -0.002101662 -0.003664873 0.0038609458 0.004342769 0.003296831 -0.0031440926 0.00079588586 -0.0020267698 0.0028114833 0.0032369364 0.002898627 0.0036224944 0.00027802557 0.0032865605 0.00276365 -0.00010264667 0.002882449 -0.0014218559 0.00454942 0.0006506776 0.0035695224 -0.0016592476 -0.0042974623 0.0015868506
能够 0.00470525 -0.0003543391 0.00039454625 0.0016245586 0.0019813243 -0.004639571 0.002124419 0.0045286734 0.0041284077 0.0002776503 0.0023860096 0.0012653242 0.0038507492 -0.0023327174 0.00048029883 0.0025724776 0.0037515878 0.0043309904 0.0044311704 -0.004630682 0.003987152 -0.004168821 0.00021851722 -0.00037069456 0.0007690048 -0.0014388629 -0.00429753 0.0013685514 0.002400007 -0.0042198696 -0.0021614695 -0.0042128144 0.0036074254 0.0033450364 -0.000783436 0.002576811 0.00043116324 0.00052187796 0.0016517052 -0.0003861125 -0.0006404434 -0.002683886 -0.0011899313 0.00024043342 -0.0026442723 0.0036082694 0.0005449602 -0.0011281029 -0.00067471946 -0.00024745165 -0.003555286 0.0032699502 0.00275619 0.0019215901 0.0036885096 -0.0049094125 0.0017353654 -0.0031400886 -0.0045967805 0.0049030655 -0.0037543336 0.003538955 -0.0005998 0.00018000208 0.0009100697 0.0045723952 0.00066747225 0.003265447 0.0033941772 -0.00054847647 0.001758536 0.0020929452 0.0032218136 0.0029981912 -0.0010681615 -0.0023355342 0.0018271008 -0.002880499 -0.0027898066 0.00396933 0.0031836852 0.002170471 0.0048588645 -0.0010909464 -0.00069572683 -0.00025558847 0.004831774 -0.0026342454 0.0014043172 -0.0033332433 0.0035786186 -0.0044784476 -0.0020580194 0.0011613718 -0.0021007783 0.0016582392 0.0024183013 -0.003473537 0.0022368722 0.0034274715
保证 -0.00022620497 0.0022039607 -0.0028341666 0.004198681 -0.0005960113 -0.0018682131 0.001818064 0.0035038039 0.0033833678 0.0043716636 0.0025154192 -0.0002036621 -0.0042797485 0.004907893 0.002122655 -0.00300278 -0.0020693324 0.00013970902 -0.0012098339 0.0032095728 -0.0037463277 -0.0038618194 -0.0029881825 0.0041268156 -0.0033174492 0.0043303305 -0.00080861134 0.0026120748 0.0025417474 -0.0007256531 -0.0005506586 -0.0015726056 0.00052937085 -0.002120407 0.0046792957 0.00035926534 -0.0034612701 0.004679001 0.000126532 0.0025662377 0.00017298451 0.0013491368 0.00046929208 -0.0017670812 0.004480729 0.0032566634 -0.0005066588 0.002470402 0.003408336 6.0270966e-05 -0.0049544265 -0.002744462 -0.00022891833 0.0014429841 0.0025964864 -0.00012597663 -0.00010709271 0.0042127096 0.0019071118 -0.003752533 -0.0023977498 -0.0022587348 0.0025409106 -0.0043291934 -0.0014752804 0.0013831966 0.00031635855 0.00033304637 -2.919035e-05 0.0021284777 0.0028174287 0.0034907267 0.0014419064 4.5819597e-06 0.002026973 0.003987516 -0.00400655 -0.004687673 -0.004643273 -0.0035287405 0.0045879986 0.0041601015 0.0031460677 0.0033922824 -0.004658488 -0.0025429516 -0.0009717309 -0.004752968 0.0035255572 0.0025347604 -0.0006088747 0.00012051127 0.0015419153 0.00046353837 0.0031304592 0.0017817946 0.0014833704 -0.0028693182 -0.0005558066 -0.00023714108
QPS -0.0004174049 -0.000611994 -0.0015390725 -0.0020809474 0.00083198724 -0.002644166 0.00043374274 -0.004368504 -0.0019185165 -9.815057e-05 -0.0003422096 -0.0022100199 0.0022146963 0.0011353389 0.00031317078 0.0047814683 0.0016495939 0.0017810572 -0.0032172701 0.0034501469 0.0040621147 -0.0044371868 0.003215143 0.0021224802 -0.0011634355 -0.0033455396 -9.095833e-05 0.0013363827 0.0012751004 0.0044780504 0.0015571582 0.0002511799 -0.0040524886 0.0023176158 0.0043785092 -0.0015622276 0.0042795176 -0.0022588295 -0.0042924015 -0.0018317191 -0.0014863324 -0.00040224832 -0.0011694962 -0.004264794 -0.00441506 0.0008566392 0.004959175 0.0035114225 -0.0019792533 -0.0031695676 -0.004454169 0.00048066568 0.0027653102 0.0015849912 0.0012651617 -0.0037988944 0.0047148843 0.0022408727 0.003972736 -0.004658293 -0.0016865308 0.003917622 -0.004990638 0.0014833262 -0.00228263 -0.003497629 0.00033247482 0.0039271074 0.003485603 0.0010834085 -0.0005483514 -0.0024498075 0.0041013206 0.00213978 -0.0012451995 0.004954434 -9.958885e-07 0.004915777 5.1611427e-05 -0.0019240461 0.0018214663 -0.004473094 0.0034187923 -0.0031302492 -0.004289951 -0.0036613941 -0.0029811098 0.00015847255 -0.00073580147 0.003087076 3.3258548e-05 0.00081093056 -0.0047381744 -0.0006858804 -0.0022239021 -0.0049723727 0.003476824 0.0011346085 -0.0014649532 -0.0030408313
使用 0.0028682672 0.0049895206 0.004637609 0.0027478582 0.00083559926 -0.003589188 -0.0003104555 0.00025881524 0.0030429752 -0.0031025345 0.0013158497 -0.0040221424 -0.00031701542 0.0032094421 -0.0015924266 -0.0038643188 -0.0048708 0.00011166278 0.0017280218 -0.0028832555 0.00071144424 0.0020502498 -0.004606756 0.00029503656 -0.004366158 -0.0041784635 -0.003493034 -0.0026934794 -0.0028079238 -0.0030442583 0.004947864 -0.0020498305 0.002189208 0.0008519849 0.003076697 0.004688421 0.0018493702 0.0021286225 0.004226402 0.003472155 0.002935201 0.000549887 0.0021731167 -2.6740432e-05 0.0010346435 0.0011292937 0.004593102 0.00058229506 -0.00076440553 0.004032221 0.0022780404 -0.0034920853 0.0022485764 -0.0033037513 0.004738535 -0.0010973391 0.0005942442 -0.0029220383 -0.0005830925 -0.00186047 0.0034234256 0.0011331693 0.00038321593 0.0019844726 0.0012689907 -0.004400194 0.00032021274 0.00023682858 -0.004164567 -0.00013105749 0.0046795094 -0.0048052436 -0.0002791851 -0.0007884351 -0.0024801507 -0.0018013129 0.0042596124 -0.0025495521 -0.0013475856 -0.0020821039 0.0005116761 0.00038827825 -0.002647801 5.702445e-06 -0.0013061989 0.00026411054 0.0037117165 0.0024346674 -0.0029523459 -0.0032438172 -0.001139939 -0.0020393075 0.0011094251 -0.0013981618 0.0004936188 0.002465283 0.004754442 0.0019387804 -0.0026032848 0.00049827725
云 0.00057885924 -0.00016285338 0.0034994024 0.0020537472 0.0021241393 -0.0029899895 0.0010347228 -0.0033971905 0.0021793842 -0.001813979 0.0018970346 0.0022938268 -0.0030079896 0.0014115293 0.004679697 0.0024006083 1.5584626e-05 0.0012139835 0.004349173 -0.0043575447 -0.0010963383 0.0010155477 0.0039852113 -0.0013415402 -0.001253022 -0.0025582814 -0.0021476753 -0.001219763 0.0025744275 -0.0042875707 0.0026074168 0.0028054381 0.0034793164 0.0018763635 0.00019584004 -0.0010918631 -0.0039386353 -0.002629651 0.004266676 0.0028869621 0.0020253584 0.003179965 0.0036941702 -0.0025930733 0.0011667006 0.0041996697 0.0038808302 -0.004385874 -0.0018473078 0.003888854 0.004039654 0.0004977484 -0.0023477545 0.003622327 -0.0030738786 0.0013959091 -0.0038099696 0.0049997685 -0.004600619 -0.0045837383 7.132618e-06 0.0020666935 -0.0032317475 -0.0003134361 -0.0016767703 -0.0034041975 -0.0018867704 0.0022665581 0.0036001056 -0.004678389 -0.0035782123 0.0007068014 0.00021427295 0.0045963 0.0033681921 0.0025654968 -0.004076969 0.000873119 -0.00036596248 -0.0024089005 -0.00432388 0.003997781 0.0001241631 -0.002813521 -0.0042233905 3.661217e-06 -0.0041572372 0.0027126833 0.0032290285 0.0048209312 -0.0010806705 0.004929683 0.0011028365 0.0027022255 0.0034582578 -2.9880095e-05 -0.0048269797 -0.0022298885 0.0031423725 0.0026001884
AK 0.0037964655 -0.0029862083 -0.0046128375 0.0032268064 -0.0026044776 -0.003171897 0.001959788 0.0006933506 0.0027599707 0.004374963 0.0027353633 -0.0017649798 0.0023507203 -0.003649272 0.0018362888 -0.002030504 0.0013551251 0.0033916945 0.0047174073 -0.0037672822 -0.0003167403 -0.0026825154 -0.0023153592 -0.0014244381 -0.00089998555 0.0021888528 -0.004453768 0.0015126922 -0.0038883856 0.0026827424 0.003944563 0.0032349399 0.004572946 -0.0028049024 0.004513694 0.00021229695 -0.003572274 -0.0018929001 0.0047902977 0.0039350833 0.0040388745 -0.0014009806 -0.0023368828 0.0023230787 0.004214079 -0.004369147 0.0030754851 -0.00048533772 -0.0018466078 -0.0016019373 0.0016963836 -0.00026614536 0.0015720361 0.0018341806 -0.0012149313 0.0032924965 -1.813871e-05 0.0029449242 0.0036538632 0.0037905176 0.000721977 0.0029814658 -0.00042863487 0.0026305316 -0.0034671344 0.0036355956 0.002537478 -0.003869515 -0.0018332818 0.002004712 0.000882331 0.0011697088 0.0031931156 0.001614259 0.0036829398 -0.0006893805 0.0012821712 0.003970773 0.0025537366 -0.0010686069 -0.0044344994 -0.004008735 0.0048226058 0.0013217055 0.002110868 0.0048170267 -0.0040438087 0.0005569731 0.0017085191 0.0035895917 -0.0009735086 -0.0009847428 -0.001873961 -0.002838812 0.001530966 0.0016082173 -0.0047306106 0.0015487242 -0.0029921583 0.0036919315
SK -0.0043531097 0.0014272063 -0.0015665384 0.00052627764 -0.0020212831 -0.0018889806 0.0028180184 -0.0012277743 0.0035654455 0.00027292132 -0.00027452526 -0.0012570352 0.00053803186 0.0043143136 0.0005843211 0.004254386 -0.0037829462 -0.00017469679 0.00033525526 -0.0037073547 -0.0020902462 0.003496951 -0.0038533588 -0.004737507 0.0005645285 0.0037825503 -0.00043129918 0.0005374029 -0.0048205005 -0.0025476364 0.0006178614 -0.0043178247 -0.003959047 -0.003988536 0.0038081468 -0.0029283836 -0.00401549 -0.0010505274 0.0030232805 -0.0003935906 0.0033986105 -0.0031496848 -0.0017473169 -0.0037960997 -0.0045257434 0.0013242449 0.004386505 -0.0036607753 0.0036496858 -0.0023863085 -0.00015908049 -0.0016146289 -0.0036686587 -0.00065286807 -0.002538642 0.0006049748 0.0015834813 -0.0025963397 0.0038136344 0.004851937 -0.00019131377 0.00091709604 -0.0031503942 0.0017200364 -0.0020448577 -0.0027494153 -0.002960436 -0.0011856284 -0.0024801553 -0.00265169 0.0025588067 0.0032246711 -0.0013217055 0.00060624897 -0.00030776282 0.0013961517 0.0008695249 0.0036905538 -0.004330276 -0.003548693 -0.003971116 0.0015432906 -0.003971572 -0.0009874126 -0.003286354 -0.0026086343 -0.00031788944 -0.0008087103 0.0006796819 9.729318e-05 -0.001557493 8.9158246e-05 0.0038834505 0.0021732142 -0.004328554 -0.0037745445 -0.001135498 0.0007213854 0.00024529797 0.003187777
定制 0.00025491384 0.003470347 -0.00075958035 -0.0036350244 0.0018102524 0.0048385337 0.0047390833 0.0014049846 -0.00028015344 -0.0031128451 -0.002557274 -0.0025666957 -0.0024407671 -1.3558351e-05 0.0040916866 0.0044898395 -0.0020515004 0.0040810946 0.0040946836 0.00216329 -0.00068047346 0.0021618037 -0.0001410747 0.0040470557 0.0002642233 -0.0003737142 0.004128479 0.0027550806 0.00071492675 -0.0019224013 0.002209213 0.0020485402 0.004319285 0.0017771043 0.0032696198 5.3065367e-05 0.0030699493 0.0020464032 0.004578037 -0.0022031956 -0.0035850194 -0.0017897913 0.0009653771 0.0009848553 -0.004451762 0.0032221894 0.0007637209 0.002937512 0.003187355 -0.0015644333 0.0005127906 0.001758385 0.002865872 0.0021581273 0.0024488827 -0.002599107 0.0013847672 -0.0005942476 -0.0033870414 0.0012172925 -0.00039817483 -0.0030419123 0.0006910065 0.0008196604 -0.0029994228 0.002575578 -0.0006011289 -0.0015021194 -0.002647697 -0.00221982 -0.0038437217 -0.00080543605 -0.004524952 0.004403846 -0.004764833 0.0028502578 0.0028282793 -0.0030713049 -5.514759e-05 0.0040689358 -0.001778376 0.004457869 0.0033421891 0.00069258886 -0.0036429036 -0.0048232884 0.0043941196 0.0003522889 -0.0048253043 0.0010162975 0.0033312226 -0.0043815295 -0.003541332 0.0022645057 -0.0026741037 -0.0048259688 -0.0036953231 0.0023704006 0.0019063194 0.00029011827
化 0.0005272907 0.0006717706 -0.0017992964 -0.004988359 -0.0033067982 0.0038926797 -0.0034337093 0.0029038282 0.0021824697 0.0044062273 -0.004397816 0.0003777435 -0.0012474376 -0.0017028075 -0.004472451 0.00035572436 -0.00200396 0.0042643268 0.001481774 0.0005611305 0.002714411 -0.00062175945 -0.002586206 -0.0010934944 -0.0025585585 0.0015891291 -0.0007803739 0.00082965865 -0.00060685596 -0.0046703005 0.0035247996 -0.0014893159 0.003976666 -0.003930782 0.0010725635 -0.0023989496 0.0023989717 -0.003367069 -0.0028040048 -0.0019487889 0.00026418996 -0.002833439 -0.003145721 0.0045625535 0.0019612114 0.003806996 -0.0002581595 0.0009875695 -0.00090554246 -0.0017613136 0.0032989264 0.0004389468 -0.0032791349 0.0028665767 0.002022642 -0.0032591964 0.0025832132 0.002284294 -0.0019864822 0.0034765548 0.0018084411 -0.004858493 -0.0015376223 -0.0038670807 0.002849071 0.0035346926 -0.0038075587 -0.00034283128 0.0016671376 -0.0034588294 -0.0016576234 -0.0047002356 0.003049362 0.0018631513 -0.0033882689 -0.0015823898 0.0009843726 -0.0032873943 0.0033900333 0.0037154516 0.0037081945 0.000112789494 0.0020637412 -0.00065266027 0.0034138705 0.00071354484 -0.0021726594 -0.002954676 -0.0027570906 0.0031688686 0.0030120483 -0.0020598453 0.00011424823 -9.691204e-05 0.0021706729 0.0016380008 -0.0040921276 0.00051154726 0.0006725607 0.0040655257
需求 -0.0012703547 -0.0035233335 0.0011493807 -0.00048482546 0.00020634303 -0.001061297 0.0025874907 -0.0015001736 0.002889037 -8.17951e-05 0.0021587645 0.0049931286 -0.0010567064 0.0040074326 0.0046046493 -0.0030390325 -0.0014179745 0.0005333587 0.00407728 -0.0015181344 -0.0048351698 0.00087391044 -0.0048578265 0.00356145 0.0044395435 0.0042386004 0.00080411445 0.0023445224 0.004577421 0.0014057913 -0.0021681283 0.0039468952 -0.0031901607 -0.0012839201 0.00014777212 0.0018250159 0.0019406516 0.004515446 0.0024327298 -0.00241056 -0.0036896954 -0.00019361569 -0.003233057 0.0006309504 -0.003941864 -0.003090011 0.0005776655 0.0006141498 -0.0015007437 0.0031019691 -0.0037352617 -0.00244673 -0.002173815 -0.00012447647 -0.0025544197 -0.0016241169 -0.0002773059 -0.003306288 -0.004787968 0.0041460437 0.00089056086 -0.0012358368 0.0046115476 -0.0031421068 -0.00288871 -0.0047591412 0.0041520805 -0.0036366486 0.0034962606 0.0018508268 -0.003987124 0.0043659303 0.004168336 0.003907216 -0.004324858 0.00052155374 -2.3806388e-05 0.0037510549 0.0029413826 -0.0034598014 0.0027484242 0.0047181 0.0033474842 -0.00071525836 -0.0011348003 0.0024871037 0.0007635088 0.00020092173 -0.0023294447 -0.004908214 -0.0031844797 0.0039492818 0.00093330257 -0.0011970055 -0.0029989935 0.0012615361 -0.0016247755 -4.8173642e-05 -0.004118568 0.004855922
取得联系 -0.0009312453 -0.0038377552 0.0018497091 -0.004004364 0.0011639557 0.0017642347 0.0025427418 -0.0048540886 0.0019449189 0.003963141 0.0014283728 0.004702925 -0.0023643312 0.0039246674 -0.0005748595 0.0018524583 0.0025546106 -0.00039251262 -0.0035957352 0.0032336756 -0.0020967347 -0.0014601488 0.0014500205 0.002433993 0.00059985794 0.0016300671 -0.0023941542 -0.0018800701 0.001799865 -0.0039634877 0.0005440255 2.0230771e-05 0.0011639309 -0.0034243388 0.0026320273 -0.0032090596 0.00010881778 -0.004875028 -0.0016395161 0.0041644196 -0.0038535262 -0.0032134396 0.0009512021 0.004929133 0.0044908426 0.0025038144 -0.0020325277 -0.0045267083 -7.95329e-05 -0.0020018888 0.001955312 0.0027711708 0.002973884 0.0034850151 -0.0031055317 0.0025174054 0.0048126224 -0.0005252447 -0.0042989673 -0.0025979388 0.0006656465 -0.00023219525 0.0028932532 0.001533565 0.0034281707 -0.0049523087 -0.0039656553 -0.0034828507 -0.0032184075 0.0015129612 -0.003079183 -0.0015471859 0.0039448836 0.002718442 -0.0024414128 -0.004164895 -0.0038050802 -0.0046761497 -0.0007103162 -0.00066897314 -0.0035400875 0.00033393377 0.0012346632 0.0047788955 0.0023748053 -0.0009817686 0.0044260947 2.101955e-05 -0.0031742034 -0.0008078485 0.0011870305 0.0012091919 -0.0016999097 0.004810327 -0.002765212 -0.0012236377 0.004760695 0.00017692357 0.0048506637 0.004908975
正在 -0.0021117474 0.0004639293 0.002759921 -0.0044974796 0.0049373046 0.0025433416 0.002341415 0.0043969746 -0.004348917 -0.002816581 0.0004889795 -0.0036581836 -0.0021789551 -0.0034641582 0.00044366164 0.0045344294 -0.0017758445 0.0017582491 -0.0011578676 3.6989033e-05 0.0039375112 0.0049509644 -0.0048907427 0.004345342 -0.0037238603 0.0022139777 -0.0010063831 -0.0016049722 -0.0018540182 -0.0034518344 -5.5258985e-05 0.004483759 0.0024634928 -0.00014053994 -0.002004566 0.0024979373 -0.0010659199 -0.0035973755 -0.00080741127 0.0016739154 0.00047660474 -0.0017788407 4.787145e-05 -0.0023436302 0.0038320946 -0.00296957 -0.0028090163 0.0026982252 0.0010247643 -0.0043024113 0.00043437403 -0.004361535 0.0045746546 -2.725786e-05 -0.003218728 0.004053643 -0.0025595357 0.0013494723 -0.0006378708 -0.004758479 0.0039401986 0.0040244814 -0.00019611184 -0.004901737 0.0015824806 -0.0015949918 -0.0004531137 -0.0031752302 0.0017002303 5.720722e-05 0.00060722424 0.0023472107 0.001954337 -0.0003204964 0.00057363114 0.004862612 0.003316325 -0.0036357432 0.00038640888 -0.0021716042 -0.0034925216 0.0020191064 -0.0041929646 -0.0034593262 -0.0017313276 0.002295957 0.0046017533 0.0035350835 -0.004846975 -0.0023673763 -0.00037529238 -0.004813128 -0.003109847 -0.00044336583 0.0029499538 -0.004262716 -0.0012163962 0.0038927465 -0.0040964084 0.002425045
做个 0.0007453109 0.0031345503 -0.0019846142 -0.0044104755 -0.00056807493 -0.00045033824 0.0037311602 0.0017922845 0.0010657043 -0.004177648 -0.002640587 -0.0027692562 0.00065261207 -0.0039108684 -0.004059343 0.0026775254 -0.004962599 -0.0029578593 -0.0033943956 -0.0005048598 0.00083422795 -0.003672224 0.0025354815 0.0035631591 0.0011460324 0.002095543 0.002569476 -0.002562264 0.0045199795 -0.0026407705 -0.0027017766 -0.0027247276 0.000985095 -0.0005983977 0.002849725 -0.0017084675 -0.001920248 -0.0019466312 -0.0016401691 0.0015002106 -0.0048367498 -0.000717499 0.0019047408 0.0046742726 -0.0011286283 -0.0009049227 -0.004993377 -0.002049983 -0.0037026966 0.002099021 0.003002829 -0.0033657209 -0.004665755 0.0047552404 0.0010363613 -0.0014465669 0.0040045185 -0.0029851075 -0.0026176402 0.002371813 -0.0011850393 0.004421704 0.0020189355 -0.004497821 -0.0041416734 0.00017538747 0.0030292668 0.0044721174 0.0028413793 0.00036192848 0.003904645 0.000446395 0.004217485 -0.004020188 0.0019347018 0.004258626 -0.00085945736 0.003599153 -0.004601481 0.0032765644 0.0030908503 0.0042060316 -0.0013377082 0.0014231934 -0.0032886446 -0.00023624251 -0.0016258311 -0.0038443846 -0.00068457547 -0.0020792345 0.0015059897 -0.0014198164 -0.00097419537 -0.0032700992 0.0028169923 -0.0038307267 0.0009941992 0.0017623787 -0.0008565193 -0.00010562773
比较 0.0016127202 0.0020110256 -0.004083246 -0.00393795 0.0029616118 0.0032878646 -0.004588041 0.0030745987 -0.0015224881 -0.003088578 -0.0009085795 -0.0019914417 0.0020833695 -0.0013609683 -0.00013133524 0.0023345891 0.0045202547 -0.0033948582 0.0007787875 -0.0041794893 -0.00019861157 0.0043598907 -0.001377496 0.0042852038 0.0024115662 -0.0004385446 0.0018133601 0.004323623 -0.0034477555 -0.0043947264 0.0024419266 -0.0040855594 -0.004932597 0.0006782405 0.0027184587 -0.0033527578 -0.0010941335 0.001539904 -0.0019319498 0.0011094011 0.0043097804 0.0032026705 -0.0017972094 -0.001349451 -0.0025773596 -0.0035067652 0.003881734 0.00018914616 -0.00078173593 -0.0042248927 -0.0040885117 0.00081657944 0.002029294 -0.003411944 0.0014430559 -0.0022480194 0.0017362704 -0.0040487354 -0.0035136803 -0.003363697 -0.0028874737 0.0022329113 -0.002669896 -0.002783959 -0.0014652953 0.0021681648 0.0045776707 0.0017585861 0.0024843523 0.0013768318 0.0017621514 0.00011229924 0.0022793747 -0.0022392552 0.002119087 -4.0150564e-05 0.0002836201 -0.0034205518 -0.0018203878 0.0036651655 -0.003847381 0.0032047958 0.0014121325 0.0015727116 0.0012481336 -0.00091476494 0.0025124366 -0.0027479378 -0.0043556187 -0.0005943535 0.004412641 -0.002924652 -0.0023984439 0.0025714096 -0.0008709228 3.925427e-05 0.003953175 -0.0041708513 -0.001300033 -0.00036449707
大型 0.001114593 0.004225082 -0.0024958886 0.0011350005 -6.9512425e-05 0.0040304665 0.0008659532 0.0014545077 -0.0033648852 -0.0022703288 0.0034413508 -0.003860077 0.0037353672 0.0047095367 0.0017655956 -0.00062511314 0.0013939736 0.0025252867 -0.0013382835 0.0025836707 0.0022584468 -0.0036348253 0.0030735289 -3.560962e-05 0.0039529833 0.002908211 -0.0043900274 0.003090914 0.0023067181 0.00084641087 0.00084137777 0.0021103336 0.002409225 0.0006805875 -0.0024271917 0.0013561053 -0.0046017026 0.0038831003 -0.0037746825 0.0015780688 0.001640528 0.00031568986 0.00067776005 0.0017940627 0.0004504405 0.001324557 -0.0031490326 -0.0028620507 -0.0030129892 0.0037258675 -0.004055373 0.0033912107 -0.0017034546 -0.0045736893 0.0016583175 0.0039513744 -0.0033798877 -0.0037980778 -0.0036068696 0.00054222665 -0.0046899794 0.0013151258 -0.0043503847 -0.0033364026 -7.071812e-05 0.0045033772 -0.0013929653 0.00466195 0.0016226261 0.004082793 -0.0012935373 -0.00029452718 0.0035403715 0.002705377 -0.0010074845 -0.0022122737 0.0011969617 -0.003597642 -0.00017284165 0.0008158198 0.004602877 0.00030202544 0.0001911267 -0.00017003987 0.0026809068 0.003456801 -0.0015467071 -0.0036943527 -0.004438556 0.002413262 0.0026091267 0.0043863007 -0.0042198263 -0.0020343019 -0.0008589506 -0.0027155913 0.0045996457 -0.0010565429 0.0010605638 -0.002160685
落地 -0.0028386686 0.001311808 0.0021420298 0.003428191 -0.00033203524 -0.001921768 0.0048731626 -0.0012844587 -0.0044333083 0.00030541426 0.0024137562 -0.004770292 0.0030729417 0.0011782107 -0.0034701517 -0.0015473267 0.0032100037 0.004692366 0.004068175 0.004939074 0.0044794744 0.004915217 -0.0019825725 0.0013857089 -0.0041499524 0.0035440861 -0.002803096 0.00088984397 -0.0014935724 0.0031076826 0.0028205127 -0.0007258764 -0.0009511532 -0.0032834471 -0.0012292214 -0.0020151422 -0.0029391865 0.0030078941 0.0016670965 0.0045493017 -0.0035620823 -0.0035513774 -0.0045434097 -0.0025808138 -0.0014567461 -0.0049999906 0.0015555056 -0.00065749086 0.0008506511 -0.0024174247 0.004258005 0.0020339678 -0.000344093 -0.0049651866 0.0045382483 -0.004584948 -0.004007034 0.004280648 -0.002303488 0.003816787 0.00066458166 -0.0019760628 -0.0011877881 0.0012287743 0.0044855075 -0.0016076156 -0.001957462 0.0048580463 0.0020995908 -0.0024092423 4.968464e-05 -0.0036400896 0.0023088132 -0.0008412404 -0.0025415514 -0.0014892023 -0.0028481667 -6.6289176e-06 0.0048184907 -0.0049382676 -0.00047734092 -0.0010629968 0.00018280855 -0.0029521687 0.0034476079 0.002757497 -0.0004460914 -0.0011287908 0.0036354002 -0.0044495654 -0.003537544 0.0048761885 0.00055408856 -0.0036061644 0.003882437 2.5228326e-05 -0.00024035503 -0.00078610284 0.004432186 -0.0032010074
项目 -0.0011044 0.001878742 0.002700732 0.0004926117 0.0034883248 0.0017458475 0.0007903001 0.0035841882 -0.003902975 -0.0032493307 0.00014990637 -0.0024339063 -0.004732491 -0.0023605344 0.0023609388 0.0014119926 0.00024225916 -0.0039920975 -0.00032043 -0.001689177 0.0027876229 0.0036742291 0.003914563 0.0039089066 -0.0031895277 -0.002269588 -0.0017296772 -0.0014226399 -0.0038430619 0.0026676187 -0.00425578 -0.0029039246 -0.0018777965 -0.0034443762 0.004924298 -0.004588507 -0.0028352942 -0.00064993126 -0.00029483196 0.004221489 -0.002027985 0.0006398005 -0.0039525623 -0.0022460038 0.0038317996 -0.0036790723 -0.0029275846 0.0012541017 -0.00096525904 -0.0026883648 -0.0016269425 0.0015402379 0.0041316575 -0.0011303085 -0.001209527 0.0032427562 -0.00395619 -0.0031049312 0.0030257583 -0.0042513935 -0.0020401685 -0.0038131413 -0.003573031 -0.001179426 0.00013691072 0.0021710163 0.0047083264 -0.0038346825 0.0002862401 0.001475664 0.00070276 0.0039369813 -0.0007353023 0.004419454 0.002624244 0.00245292 0.0040049953 -0.0031065517 -0.0016057142 -0.00022278161 -0.0036335373 -0.0042448835 0.0044216784 0.0004215674 0.0014042468 -0.004058908 0.004461989 -0.0023957028 0.0022297513 0.0025142478 0.0033336552 -0.0011343537 0.0029648643 -0.0019875981 -0.00047994324 0.0027028231 -0.0025548048 0.004864583 -0.0016002075 -0.0005479977
更 -0.0047884076 0.004007672 -0.0041369293 -0.0028959776 0.0035401527 -0.00011451566 0.001651621 0.004081884 0.0018278817 -0.004716933 -0.0023267632 -0.0030918797 0.0019430344 -0.0034841616 0.0028365839 -0.00028226932 -0.00057381997 -0.00482613 0.004561433 -0.0015420916 0.004278205 0.0037649632 0.0029622924 0.0027630506 -0.0048751845 0.001885892 0.004753466 0.0045530368 -4.1977026e-05 0.00403292 -0.0048000263 -0.0005009455 0.0016217723 -0.002267683 -0.004040822 0.0001250021 -0.0005176301 -0.004415601 -0.0029096706 0.0005933472 -0.0003859444 0.0021030235 -0.004355124 0.0020987056 0.0024189013 0.0008080619 -0.001254514 0.0019715305 0.00044420135 -0.0027438584 -0.003456225 -0.0018419555 -0.00023744631 -0.004225118 -0.0049914764 -0.00467198 0.0011243803 -0.00030776564 -0.0011218404 0.0004472629 0.0009312343 0.0036193363 0.0005166958 -0.0011059584 -0.001961147 -0.002672294 0.0037568412 0.004627109 -0.0035591011 -0.00075866317 -0.004836868 -0.003946372 0.0043173335 -0.0024515307 0.0040630903 -0.001198267 0.00044451185 -0.0033165393 0.0012548488 0.0035315636 0.00083477877 0.0030547376 0.0014003686 -0.0013745725 0.004363885 0.0041505783 -0.003376741 -0.00086797914 0.0018653681 -0.0034143887 0.00123181 -0.0005085665 0.0041565136 0.0008171674 0.0042415466 -0.004533273 0.0017052685 0.004137781 -0.002302388 -0.0013036433
接洽 -0.0048656473 0.0045025977 -0.003990831 -0.00039886683 0.00084350567 0.0032630225 0.004243781 -0.0022099714 0.0011915737 -0.0003143224 -0.0019170581 -0.0036295818 -6.925879e-05 0.0041284366 -0.004821978 0.003616431 0.004067007 -0.0006823681 -0.0016396125 -0.00019882689 0.0019278424 0.0006562017 -0.0017651204 -0.00032712752 -0.001834442 -0.004793224 0.0006101694 -0.00014905445 -0.0007507653 -0.0008841836 0.0036048978 0.0017770033 -0.004528821 -0.0011796139 0.0037237639 -0.004430015 0.000157039 0.0039831866 -0.004477865 0.0023010261 0.003954068 -0.0041889995 0.002626545 0.0049320012 0.0044793184 0.0014986458 0.0024741665 -0.0023562473 0.00036523465 -0.0033205675 0.0019063073 -0.0030511708 -0.004985379 0.0027612366 -2.3617291e-05 -0.0048909 0.0013232917 -0.0013569315 -0.001216278 -0.0013984111 -3.1610543e-05 -0.00032156392 -0.0026675942 0.004908806 0.0018227912 0.0022031115 0.0014286155 -0.0037990033 0.004460609 -0.0033607942 -0.0045039877 0.0033508244 -0.0043027545 0.0010242055 -6.3371203e-06 -0.00080993597 0.00058907334 0.0014268911 -0.0001593937 0.0030542088 0.0014448423 -0.0023980057 -0.0010176459 -0.0047721276 0.0001256128 0.003034385 -0.0043180943 -0.0034834365 0.0044190018 -0.0028641573 0.0042132623 -0.0030316284 -0.0042686146 0.0037922726 -0.004806714 0.004282221 0.0008768201 0.0011941261 -0.00095612905 -0.004782058
部分 0.0009643587 -0.004762907 0.004257652 0.002219547 0.0013652608 -0.0033365 -0.004577364 0.0014747338 0.0038775918 0.0044352245 -0.0039307303 -0.0029226185 0.00075256935 -0.00033260038 -0.004087824 -0.002852614 -0.0029399765 -0.003742196 0.0015051896 -0.0029369458 -0.0026944932 0.0046759364 -0.0011259257 -0.004324562 -0.0041724877 0.0008326361 -0.00080697855 0.004945652 -0.0023681542 -0.0033768816 -0.00040590717 -0.0027469152 -0.0007884889 0.004237744 -0.0022711954 -0.0038829807 -0.004359042 -0.0019135367 -0.0004404878 -0.004361214 0.0023560065 -0.0033720655 0.0042523947 0.0041325144 -0.0030030108 -0.0020374507 0.0014000791 -0.0022035518 -0.004523057 -0.002395749 -0.002654958 0.00094966654 -0.003305404 -0.003832738 0.00416735 0.0023104579 0.00052564044 0.0005708236 0.0012715992 0.0001338519 -0.0032411113 -0.00039010786 0.00021505768 0.00072501233 -0.004757595 0.0005083144 0.0006827649 0.0023528654 0.0023093156 -0.00082583196 0.0015732347 -0.00095746864 -0.0011442404 -0.004103545 -0.0017284766 -0.0027082912 0.0022251909 0.002628971 0.0029444858 -0.002363648 0.003068722 0.0005901767 8.527177e-05 -0.0005676901 0.0007722206 0.0002160866 0.004992148 0.0024812298 0.002262632 -0.0008814144 0.0010914777 -0.0028743814 0.004364299 0.0017654907 -0.003809522 0.0046024616 0.003182449 0.0016474541 -0.0013030533 0.004099738
是否 0.0042247023 -0.0022869103 -0.0013833628 0.0004201745 -0.00083818665 0.0021895955 -0.0011245876 0.004064122 -0.0013122001 0.0038064304 0.0047043376 3.6846348e-05 -0.0013070258 -0.0036766364 0.0013809147 0.0046752826 -0.00014797878 -0.004747 0.004772578 -0.00054536184 0.0010186733 0.0023918499 -0.0008355663 -0.0023520268 0.0032812874 -0.0015589597 -0.00044027047 -0.00034147143 -0.00018336704 -0.0031106824 0.0022091875 -0.0046378165 -0.00392031 0.004169159 0.0038820496 0.004085549 -0.002571085 0.0027993922 -0.002057158 0.0046705473 -0.0024235894 -0.0034717168 -0.0023617751 -0.0011449313 -0.0018542407 0.0046201632 0.00069620606 -0.00334204 0.0025127153 -0.00085163413 -0.004496838 -0.0035642497 0.003677952 0.003603023 0.0045586396 0.0037975223 0.0015568564 -0.0005400812 -0.0042936094 -0.004422259 -0.00276598 0.0031555777 -0.004352117 -0.0018816657 0.0017272359 0.00057088543 -0.0016018248 0.004767157 0.001413209 -0.003338208 0.004247837 0.0020533968 0.002914688 -0.0040863706 -0.0046100044 -0.0014873603 -0.0010392476 0.0034313756 -0.003339565 -0.0002987416 0.0035024835 0.0024040919 -0.0028092226 -0.0022667414 0.00330705 -0.00022914213 -0.00029468653 -0.0027888152 0.001519185 -0.003019302 0.0025691427 -0.0021740901 0.0024254245 -0.0020526724 -0.0032079068 0.002712622 0.004854522 6.759246e-05 -0.004178011 -0.0011572975
支持 -0.0049183257 -0.0048856484 -0.0008057128 -0.0011639241 0.0035772042 0.00056430395 -0.0014764856 -0.0015246806 0.0020834024 -0.0001744602 -0.0016448254 0.0045757433 0.004921982 -0.001501291 -0.0031840042 -0.002050143 0.003814351 0.00020547965 0.003596802 0.003924971 0.0010675975 0.004802676 0.0017339016 -0.0011692082 -0.00013982315 -0.00239384 0.00080496026 -6.813571e-05 -0.002756964 -0.0043691443 0.0014527409 0.00039702485 0.001966974 -0.0016942024 6.276507e-05 -0.001112616 0.00287175 0.00024720907 -0.004461425 0.0009870855 -0.0035694642 -0.003409863 0.0010718271 -0.00043013413 -0.0005793936 0.00184414 -0.0040197377 -0.0005725238 -0.00074088963 -0.0038202035 -0.0007595103 -0.0006613803 0.0018555357 0.003314107 -0.004963893 -0.003649145 -0.0019735794 0.00086168404 0.0027030073 -0.0018603435 0.0037205024 0.00068318594 -0.0042659226 0.0043147784 0.0004702797 -0.0037982892 -0.0008742845 0.004346805 0.004994179 7.824904e-05 0.0016394032 -0.004074456 0.0019513227 -0.0035628106 -0.0050002 -0.0024219884 -0.0035942213 -0.0024166 0.0011415543 -0.0010122253 0.0042549507 0.0013448067 -3.7447917e-05 -5.1875606e-05 -0.0015928439 0.003980334 -0.002705839 -0.0023745545 0.00028109242 -0.0012544212 0.0032009205 0.0017789633 -0.0029890025 0.0019939297 0.003603909 0.0029943886 -0.004836882 0.0040489705 0.002393242 -0.002323398
计费 -0.0031622446 0.0034120206 -0.0020738256 -0.0009063814 0.003353134 -0.0035392381 0.0012613265 -0.00027823407 0.0030778507 -0.002381523 0.0021276516 -0.0044661337 0.003547512 0.0049373927 0.004330063 0.0028007983 0.0031768184 0.00017236969 -0.00077924464 0.0001830854 -0.0022621395 0.00065943785 -0.0026238007 0.004047494 -0.00054554624 -0.0013575034 -0.001760408 -0.002377663 0.003895789 0.002725413 0.00015569958 -0.0007801661 -0.002821364 -0.002569378 0.0013923101 0.0012065932 -0.0025242579 -0.0040886 -0.0025599597 0.0034686145 0.0012255396 0.0047573657 -0.0029116203 -0.004552327 0.00015819176 0.004148045 -0.0015948508 8.289367e-05 -0.0026089032 -0.003922481 -0.0004668025 0.0032362188 -0.0037270978 0.0013520444 -0.004382669 -0.002453016 -0.003738226 0.0014347032 -0.0034908657 0.0018989783 0.001068428 -0.0029007192 -0.0042629694 0.0033263355 -0.00060031615 -0.003767956 0.0019519563 -0.0022169126 -0.0007578033 -0.00016748815 0.0011406469 -0.0011534655 -0.0017167 0.0030171166 0.00082859996 -0.0045032073 -0.0017255035 -0.0026106818 -0.003626643 0.0011414887 -6.417172e-05 0.0035359135 -0.0017226237 0.0006740469 0.00038638106 0.00095832674 -0.0046430808 -0.0031158747 0.0020550864 -0.0011814288 0.0021250735 -0.0003915903 0.0033540062 0.00169043 -0.0015628783 -0.0007946881 -0.0009214439 0.00027859237 -0.0019782742 0.003193328
价目表 -0.002601179 -0.0003797566 0.0007621207 0.0001901117 -0.00026228777 0.0034595898 -0.00041863974 0.00015333781 -0.00036285576 0.0048912405 0.0017643946 -0.0014309164 -0.0004593377 -0.0009819148 -0.0049865823 0.0039387606 0.0034013852 -0.003430342 -0.002867115 -0.0044328184 0.0047519268 -0.0037320007 -0.0032983792 -0.0006494322 -0.0045217643 -0.0030092455 -0.0002443314 0.0035253083 -0.0023238075 -0.0012633321 -0.0021679376 -0.003972129 -0.003234598 0.0005011596 -0.0013372722 -0.0030005393 0.0005385008 -0.00085461384 -0.0044616903 0.0020855593 -0.003997694 -0.0037684194 -2.9026702e-05 -0.0037903956 0.0021896032 -0.0022156127 -0.0036250819 -0.0026034515 -0.004548879 -0.0020840974 0.0020384286 -0.004979003 0.0016483447 0.004467815 5.7413723e-05 0.00033392882 0.0019940722 0.0009357291 0.0034691906 0.0022148627 -0.003085127 0.004112439 0.0045350087 0.001940465 0.0027157152 -0.0046806503 0.0028181626 -0.003753547 -0.0033535636 -0.003470502 0.004487304 -0.0011684017 -0.0029169403 0.0037398469 0.0027127836 0.001983921 0.002184808 -0.003941137 0.0049506966 -0.0026562093 -0.0013166746 0.00037316926 -0.0012583331 0.002719217 -0.0023260263 -0.0022320505 0.0021542055 0.0030387044 -0.002376231 0.004072409 0.0011793263 0.0033683872 -0.003328643 0.0040512765 -0.0039779134 0.0037115621 -0.00427302 0.0039882218 0.0032671527 0.003669146
AI -0.00029105827 0.00013117972 0.002426128 0.0009810101 0.00017597634 -0.0021393828 -0.0033128439 0.0031162142 0.0029750736 0.0009053358 0.004721329 0.00043953315 -0.0005107473 0.002414331 -0.004692028 0.004418807 0.0040370757 0.0024788424 -0.004983125 0.0044340654 -0.0018463847 -0.0015326994 0.004678967 -0.001060606 0.0019076008 0.0017061861 -0.0014743214 0.0038724164 -0.0008998646 -0.0032498005 0.0020040078 -0.0037625248 0.003341533 -0.0015232596 0.0042410702 0.0026907548 0.00015233831 -0.004311461 -0.002016235 -0.004145273 -0.0032714482 0.0010032292 -0.00095557136 -0.0024771583 0.0015087564 -0.0026126874 0.0023994236 0.0002186584 0.0024839358 0.001254636 -0.004481291 -0.00061833253 0.00071673637 0.0026123372 0.0006374014 -0.0041798158 -0.0005462508 0.002602845 -0.0019692045 0.0028720263 -0.0029668708 0.0029940284 0.0013179021 0.0021256593 -0.00024494683 -0.0017352618 0.004328243 0.0007998733 -0.004517848 2.037825e-06 0.0035589489 -0.0022496479 0.0017553768 0.0018438672 0.004327462 -0.0033407442 0.004499582 0.002162748 -0.0037169852 -0.00082770095 0.0042373664 -0.0020317372 0.0043478166 -0.0039979746 -0.001104379 0.00094670797 -0.0014564814 -0.0005893164 0.0015104795 -0.001622228 -9.927896e-05 -0.00036125252 -0.00080870284 0.0044477684 -0.0032864155 0.0010896141 -0.0034755687 0.0036358717 1.5713085e-05 0.00059926783
技术 -0.00090702454 0.0023068357 -1.2995077e-05 0.003916821 -0.0011084883 0.0036103367 -0.002261397 -0.0036135407 0.0004657772 -0.0027541984 -0.0049212854 -0.0036891366 -0.0012700285 0.0012680145 -0.0046588727 0.00035692815 -0.0024030227 -0.003350876 -0.0013960572 -0.00079313945 0.0018509435 -0.0014253333 0.0004513722 -0.0048082303 0.0016871318 0.0011227907 -0.0022465915 0.0022292105 -0.0016198718 0.0028882362 0.0012899215 -0.004463227 0.001904984 -0.0023975258 0.004055791 0.0046217404 -0.0045769503 0.0036469817 -0.003396964 -0.000821025 -0.002666824 0.003033985 -0.0039958474 -0.0038865076 0.001286648 0.000599014 0.002386789 0.0049535707 0.0034286308 -0.0011672948 0.002697574 -7.913989e-05 -0.0034321724 -0.00018653154 0.0023540035 0.0046747006 0.0047075683 0.003539072 1.4881391e-05 -0.004520336 0.0013292099 -0.004765912 0.0019323074 0.0005109877 0.0038614476 -0.0034314631 -0.00042756618 0.0033725642 -0.0010332749 0.00040892547 -0.0046734745 4.5615634e-05 -0.0036781596 -0.0020359473 0.0037630312 -0.0027789176 -0.003961577 -0.0013533166 -0.003334764 0.003934348 -0.0016354232 0.0007403536 0.0035606928 -0.0038258415 -0.003871604 -0.0034078304 -0.0048807226 -0.003728762 0.0022802067 0.000404655 0.0027508328 0.0021386216 -0.0009588304 0.0035574026 0.00028653702 -0.0010063251 -0.0041946806 0.0006127414 0.0044325218 -0.0045376746
充值 6.458308e-05 -0.0016814393 -0.0015003305 0.0021972978 0.0037952203 -5.144611e-05 0.003434185 -0.0028317445 -0.00225644 0.001865825 -0.0046820934 -0.00062506675 0.00024960865 -0.0026407384 0.0012147593 0.004513293 0.00080760295 -0.0015914702 -0.002555003 0.0042844787 0.004475174 0.0028701227 -0.001936996 -0.0013574131 -0.004697062 0.0034066576 0.000515511 0.003902831 6.0776634e-05 0.0009894752 0.0038921828 -0.00269173 -0.0040581357 0.0033293567 -0.0038698083 -0.0008102177 -0.0031049838 0.0011643192 -0.0032554138 -0.001748204 0.0043848627 0.004712746 -0.0037382853 0.00325193 0.0018877595 0.002388411 -0.0015694184 0.004527316 0.00052504643 0.0043071806 -0.00019291883 0.0022956722 -0.0021852555 -0.0007945139 -0.0021344642 -0.0027447094 -0.003156342 -0.0003407243 0.004596975 0.004479584 0.0018564153 0.0026769005 0.004964176 0.002171565 0.0023648757 0.0019222372 -0.0025512772 -0.0029895299 0.00041819675 -0.00435122 -0.003961484 -0.0023501955 -0.003723115 -0.0038373964 0.0031480305 0.0015058818 -0.004281986 0.0010138812 -0.0015980548 0.0025249657 -0.0032496627 0.0032052568 -0.00087495096 -0.0045629037 0.00251504 0.0018811754 -0.0037187415 -0.0013055046 0.0049394066 0.0022099155 0.0022706885 -0.0043579056 -0.0042169495 -0.002347264 0.002866647 0.004243381 0.004926209 -0.0045113633 0.002209922 -0.0022157128
